{"type":"NeuralNetwork","sizes":[22,3,3],"layers":[{"weights":[],"biases":[]},{"weights":[[0.4448120892047882,1.6194939613342285,0.16926003992557526,0.8603687882423401,-0.18067538738250732,1.1946988105773926,0.1964062750339508,0.18913984298706055,-0.07097128033638,-0.32085981965065,-0.03099573403596878,-0.4190181493759155,-0.18772923946380615,-0.1621522456407547,-1.4000390768051147,-1.3613691329956055,0.010717125609517097,-1.313525676727295,-0.14218077063560486,-0.11391617357730865,-0.12845458090305328,0.09285004436969757],[-0.5464392304420471,-1.853105902671814,-0.12681891024112701,-0.9743944406509399,-0.24095231294631958,-1.0451760292053223,-0.1059274673461914,-0.11114957183599472,-0.004879833664745092,1.221482276916504,-0.1509353667497635,1.2512552738189697,0.15937092900276184,-0.16982881724834442,0.8618056178092957,0.8226875066757202,-0.18508045375347137,0.8729386925697327,-0.1087949275970459,-0.007402774877846241,0.11513298004865646,0.19023434817790985],[0.7756257057189941,2.1754281520843506,0.02418002299964428,0.8165972232818604,1.9651260375976562,0.9685442447662354,0.09024275839328766,-0.02350015379488468,-0.025638168677687645,-2.275709867477417,-0.04998696222901344,-1.8259482383728027,0.06910290569067001,0.0865369439125061,1.2053924798965454,1.0060393810272217,0.09621783345937729,1.1818225383758545,-0.19032709300518036,0.1721276342868805,0.07813359797000885,0.1072366014122963]],"biases":[1.0877985954284668,0.26871606707572937,-0.6181631088256836]},{"weights":[[0.23563741147518158,1.3758647441864014,-5.218749046325684],[-4.1994194984436035,1.4486390352249146,2.156618595123291],[2.6837141513824463,-3.854573965072632,2.3026697635650635]],"biases":[1.4031949043273926,-1.1992276906967163,-1.4742511510849]}],"inputLookup":null,"inputLookupLength":0,"outputLookup":{"greetings":0,"questiongreeting":1,"farwell":2},"outputLookupLength":3,"options":{"inputSize":0,"outputSize":0,"binaryThresh":0.5,"hiddenLayers":[3]},"trainOpts":{"activation":"sigmoid","iterations":20000,"errorThresh":0.005,"log":true,"logPeriod":10,"leakyReluAlpha":0.01,"learningRate":0.3,"momentum":0.1,"callbackPeriod":10,"timeout":"Infinity","beta1":0.9,"beta2":0.999,"epsilon":1e-8}}