{"type":"NeuralNetwork","sizes":[25,3,3],"layers":[{"weights":[],"biases":[]},{"weights":[[0.05272316560149193,-0.18804481625556946,-0.07052212208509445,3.205524444580078,-0.13567768037319183,0.12401138991117477,0.008300513960421085,-0.2543829083442688,-0.8723086714744568,-0.03316957503557205,-0.08068111538887024,0.14291171729564667,0.09497343003749847,-0.12973226606845856,-0.13469335436820984,-0.7975547909736633,-0.10108328610658646,0.0442926287651062,-0.19741332530975342,0.7118123173713684,0.5483766794204712,0.7083607912063599,0.7430931925773621,0.47667747735977173,-0.05192911624908447],[0.17914699018001556,0.08874083310365677,-0.1755380928516388,4.695094108581543,-0.17226319015026093,0.11593080312013626,0.05983131006360054,-0.6864146590232849,-0.20729906857013702,-0.043815646320581436,-0.11660728603601456,-0.15391553938388824,-0.16021141409873962,-0.10597623884677887,-0.17633642256259918,-0.47251972556114197,-0.6465232372283936,0.1613539308309555,0.17589181661605835,-0.5247614979743958,-0.41931813955307007,-0.6329092979431152,-0.5362642407417297,-0.27211013436317444,0.0015121566830202937],[-0.1964755803346634,-0.1628163605928421,-0.15284809470176697,-0.663250207901001,0.014747677370905876,-0.10499372333288193,0.17591291666030884,-0.4379962980747223,-1.4695029258728027,0.10309910029172897,0.11351454257965088,0.18640930950641632,0.07286755740642548,0.1889239102602005,-0.1545976996421814,-1.6138074398040771,-0.39008593559265137,-0.0700923353433609,0.05436999723315239,1.0774927139282227,0.9558743238449097,1.2267193794250488,1.0854039192199707,0.9436652660369873,0.01733766496181488]],"biases":[-0.12088926881551743,-0.5077516436576843,-0.29166409373283386]},{"weights":[[-3.2663381099700928,-2.869133472442627,-2.717405319213867],[1.1320414543151855,4.367072582244873,-2.5577173233032227],[0.9837186336517334,-2.335362672805786,4.559454441070557]],"biases":[2.547380208969116,-2.4350783824920654,-2.3301525115966797]}],"inputLookup":null,"inputLookupLength":0,"outputLookup":{"questionsgreeting":0,"greetings":1,"questiontime":2},"outputLookupLength":3,"options":{"inputSize":0,"outputSize":0,"binaryThresh":0.5,"hiddenLayers":[3]},"trainOpts":{"activation":"sigmoid","iterations":20000,"errorThresh":0.005,"log":true,"logPeriod":10,"leakyReluAlpha":0.01,"learningRate":0.3,"momentum":0.1,"callbackPeriod":10,"timeout":"Infinity","beta1":0.9,"beta2":0.999,"epsilon":1e-8}}