{"type":"NeuralNetwork","sizes":[25,3,3],"layers":[{"weights":[],"biases":[]},{"weights":[[-0.0076775443740189075,-0.15832442045211792,0.06180351972579956,-0.221220463514328,0.11841534078121185,-0.19196176528930664,0.025331372395157814,-0.253876656293869,-1.4844852685928345,0.10310599207878113,0.10829507559537888,-0.17620329558849335,-0.11643858253955841,0.14693236351013184,0.1261637806892395,-1.2621108293533325,-0.6128987073898315,0.19757552444934845,0.18284101784229279,1.1695809364318848,1.1754189729690552,0.8577548265457153,0.7841417789459229,1.1237845420837402,0.02132503315806389],[0.10402414947748184,0.07215623557567596,0.033373355865478516,-5.523367881774902,0.10823126137256622,-0.026648571714758873,-0.10238678008317947,0.835301399230957,0.08296415209770203,-0.11188442260026932,-0.0689442977309227,-0.057197991758584976,0.07224004715681076,-0.11477400362491608,-0.19309012591838837,0.14684529602527618,0.7752213478088379,0.07721561193466187,0.10961514711380005,0.7601681351661682,0.7355326414108276,0.5052492618560791,0.8147414326667786,0.5444113612174988,-0.1797696352005005],[-0.16271056234836578,0.18147750198841095,-0.0613471157848835,-0.3069334924221039,0.15153251588344574,0.1661934107542038,0.05149257928133011,-0.2126339226961136,-1.3556699752807617,-0.1990203857421875,0.19166330993175507,-0.09645318984985352,0.15923269093036652,-0.13210804760456085,-0.14218249917030334,-1.2879223823547363,-0.4638445973396301,0.15096281468868256,-0.1443251222372055,0.9010457396507263,0.8670865297317505,0.9939039945602417,0.9360690116882324,1.068806767463684,-0.006605669856071472]],"biases":[-0.37705448269844055,0.7019764184951782,-0.45443224906921387]},{"weights":[[-2.983186721801758,4.509194374084473,-2.6684436798095703],[-1.429549217224121,-5.129445552825928,-1.3935718536376953],[3.260697603225708,1.2895848751068115,2.8122479915618896]],"biases":[-2.081007957458496,2.4354336261749268,-3.961899995803833]}],"inputLookup":null,"inputLookupLength":0,"outputLookup":{"questionsgreeting":0,"greetings":1,"questiontime":2},"outputLookupLength":3,"options":{"inputSize":0,"outputSize":0,"binaryThresh":0.5,"hiddenLayers":[3]},"trainOpts":{"activation":"sigmoid","iterations":20000,"errorThresh":0.005,"log":true,"logPeriod":10,"leakyReluAlpha":0.01,"learningRate":0.3,"momentum":0.1,"callbackPeriod":10,"timeout":"Infinity","beta1":0.9,"beta2":0.999,"epsilon":1e-8}}