{"type":"NeuralNetwork","sizes":[31,3,3],"layers":[{"weights":[],"biases":[]},{"weights":[[0.196955606341362,-0.18050429224967957,0.06725408136844635,0.6148708462715149,0.9877108335494995,-0.14106453955173492,0.029952649027109146,-0.08793425559997559,-0.466990202665329,-0.00005877753210370429,-1.4151747226715088,-0.11367781460285187,0.034360576421022415,-0.10653083026409149,-1.158992886543274,-0.04755694419145584,-0.02447386458516121,0.14075931906700134,0.1054481714963913,0.1813885122537613,0.0036874632351100445,0.013784551061689854,-0.5347491502761841,0.07924561947584152,0.12535220384597778,0.9423418045043945,0.7470243573188782,0.9588663578033447,0.908858060836792,0.9784035086631775,-0.05730080232024193],[-0.19715945422649384,-0.13892081379890442,-0.048534855246543884,2.037107467651367,4.865251064300537,-0.10960739105939865,0.18294969201087952,0.019333994016051292,-1.307906150817871,0.03679420053958893,-0.540281355381012,-0.12885837256908417,0.002232547849416733,0.11892182379961014,-0.5969908833503723,0.18250508606433868,-0.021775024011731148,0.0833897665143013,-0.17594633996486664,-0.03319588676095009,0.15087750554084778,0.11192943155765533,-1.1197394132614136,0.06369632482528687,0.16144625842571259,-0.8674447536468506,-0.7798819541931152,-0.9094424247741699,-0.7560749053955078,-0.6439261436462402,-0.16917267441749573],[-0.08821605145931244,0.19100163877010345,-0.0013091202126815915,-1.2934380769729614,-0.6677167415618896,0.0467691533267498,0.13794587552547455,0.12676046788692474,0.04343127831816673,-0.09931235015392303,-0.8795434236526489,0.17618611454963684,-0.08850141614675522,-0.15060602128505707,-0.6678771376609802,0.1867104023694992,0.01746366173028946,-0.08880647271871567,0.09287554770708084,-0.10002575814723969,-0.05726815015077591,0.0173355545848608,-0.1251792311668396,0.10877569019794464,-0.08065950125455856,0.7697067856788635,0.9217188358306885,1.0144484043121338,0.8631303310394287,0.9582434892654419,-0.013151540420949459]],"biases":[0.28079405426979065,0.8808834552764893,-1.1501693725585938]},{"weights":[[-3.658353328704834,-4.10068416595459,-1.3498294353485107],[0.6146429181098938,5.369331359863281,-2.639662742614746],[2.3679654598236084,-3.972651958465576,2.921196460723877]],"biases":[2.035593032836914,-2.2088513374328613,-2.18166184425354]}],"inputLookup":null,"inputLookupLength":0,"outputLookup":{"questionsgreeting":0,"greetings":1,"questiontime":2},"outputLookupLength":3,"options":{"inputSize":0,"outputSize":0,"binaryThresh":0.5,"hiddenLayers":[3]},"trainOpts":{"activation":"sigmoid","iterations":20000,"errorThresh":0.005,"log":true,"logPeriod":10,"leakyReluAlpha":0.01,"learningRate":0.3,"momentum":0.1,"callbackPeriod":10,"timeout":"Infinity","beta1":0.9,"beta2":0.999,"epsilon":1e-8}}